network unknown {
}
variable Close {
    type discrete [ 3 ] { 0, 1, 2 };
}
variable EMA {
    type discrete [ 3 ] { 0, 1, 2 };
}
variable High {
    type discrete [ 2 ] { 0, 2 };
}
variable Low {
    type discrete [ 3 ] { 0, 1, 2 };
}
variable OBV {
    type discrete [ 3 ] { 0, 1, 2 };
}
variable Open {
    type discrete [ 2 ] { 0, 2 };
}
variable RSI {
    type discrete [ 2 ] { 0, 1 };
}
variable SMA {
    type discrete [ 3 ] { 0, 1, 2 };
}
variable VWAP {
    type discrete [ 2 ] { 0, 1 };
}
variable Volume {
    type discrete [ 3 ] { 0, 1, 2 };
}
variable forecast {
    type discrete [ 3 ] { 0, 1, 2 };
}
probability ( Close | forecast ) {
    ( 0 ) 0.1, 0.9, 0.0;
    ( 1 ) 0.8, 0.15, 0.05;
    ( 2 ) 0.005763688760806916, 0.0, 0.9942363112391931;

}
probability ( EMA | SMA ) {
    ( 0 ) 0.7, 0.014285714285714285, 0.2857142857142857;
    ( 1 ) 0.26744186046511625, 0.6511627906976745, 0.08139534883720931;
    ( 2 ) 0.012987012987012988, 0.12987012987012986, 0.8571428571428571;

}
probability ( High ) {
    table 0.6925064599483204, 0.30749354005167956 ;
}
probability ( Low | Close ) {
    ( 0 ) 0.95, 0.05, 0.0;
    ( 1 ) 0.047619047619047616, 0.9523809523809523, 0.0;
    ( 2 ) 0.02601156069364162, 0.023121387283236993, 0.9508670520231214;

}
probability ( OBV | RSI, VWAP ) {
    ( 0, 0 ) 0.8556701030927835, 0.1134020618556701, 0.030927835051546393;
    ( 0, 1 ) 0.5529411764705883, 0.32941176470588235, 0.11764705882352941;
    ( 1, 0 ) 0.6140350877192983, 0.15789473684210525, 0.22807017543859648;
    ( 1, 1 ) 0.2087912087912088, 0.3626373626373626, 0.42857142857142855;

}
probability ( Open | High ) {
    ( 0 ) 0.8917910447761194, 0.10820895522388059;
    ( 2 ) 0.24369747899159663, 0.7563025210084033;

}
probability ( RSI | High, Low ) {
    ( 0, 0 ) 0.6153846153846154, 0.38461538461538464;
    ( 0, 1 ) 0.12, 0.88;
    ( 0, 2 ) 0.32608695652173914, 0.6739130434782609;
    ( 2, 0 ) 1.0, 0.0;
    ( 2, 1 ) 0.0, 1.0;
    ( 2, 2 ) 0.8080808080808081, 0.1919191919191919;

}
probability ( SMA ) {
    table 0.18087855297157623, 0.2222222222222222, 0.5968992248062015 ;
}
probability ( VWAP ) {
    table 0.5452196382428941, 0.45478036175710596 ;
}
probability ( Volume | VWAP, forecast ) {
    ( 0, 0 ) 0.75, 0.16666666666666666, 0.08333333333333333;
    ( 0, 1 ) 0.07142857142857142, 0.21428571428571427, 0.7142857142857143;
    ( 0, 2 ) 0.02702702702702703, 0.9459459459459459, 0.02702702702702703;
    ( 1, 0 ) 0.0, 1.0, 0.0;
    ( 1, 1 ) 0.0, 1.0, 0.0;
    ( 1, 2 ) 0.012345679012345678, 0.9876543209876543, 0.0;

}
probability ( forecast ) {
    table 0.05167958656330749, 0.05167958656330749, 0.896640826873385 ;
}
